

Best car model trained till date: Date: 30/12/23

bestBrain: {"levels":[{"inputs":[0.011068510089705774,0,0,0,0],"outputs":[0,0,0,0,0,0],"biases":[0.06421133601219785,0.0199272019707869,-0.0025032806538387176,0.09631265181189186,0.0014019474227460397,0.10562083335688663],"weights":[[0.007924380538818103,-0.011082863100784763,-0.2333485800782418,0.006094680698247358,-0.017387576998340204,0.02782508164778572],[-0.06375645725595921,0.087502677363776,-0.133965187137223,0.0040439308961904685,-0.0351372616767909,0.005223699800375796],[-0.14545207248904904,0.06444190926719111,0.06246212494909857,-0.05386608111669749,-0.006365336826195741,0.09812091000027022],[0.04689137448134011,0.086412205128842,0.019671386686718566,0.08784228357258266,0.026389617857507104,0.013625042025714948],[0.08335474212981428,-0.032309519296509555,0.19993438868927565,-0.07110370061349576,0.021343735611498164,-0.14327705497365906]]},{"inputs":[0,0,0,0,0,0],"outputs":[1,0,1,0],"biases":[-0.03535839915372927,0.07242539880157445,-0.029540428891251302,0.0016759549490566652],"weights":[[-0.12656773946445818,-0.10134561522488729,0.04399576652774149,0.023250120872160072],[-0.19172735259254958,0.12093865829340672,0.0375990991782815,0.06740641299176463],[0.08772729758179201,0.10245003682810143,-0.05750501373866243,-0.08138716471914711],[-0.021436261236722577,-0.047565940766812156,0.16078811657115435,-0.1260502725378545],[0.0977681132953098,0.1574578345849744,-0.14816526953333364,-0.09811710542440547],[0.04989521681324256,-0.03554108382918249,0.02615032439496804,-0.10053420336003803]]}]}

-------------------------------------------------------------------------------------------------------------------------------------------------
29/12/23
bestBrain = {"levels":[{"inputs":[0.20384804164426462,0,0,0,0],"outputs":[0,0,1,0,0,0],"biases":[0.07788209265782892,0.08529943647101049,-0.05984193466019858,0.05134888817446593,0.09569184873791345,0.07383153055996139],"weights":[[0.015091513764310716,-0.027098510731238423,-0.2820135409622654,0.07842972056326855,-0.011596443202844975,0.0810297859974398],[-0.019967992299474206,0.1728754873851353,-0.16390806797833662,-0.06094904699447465,-0.03379227810368644,-0.02671576082809369],[-0.1989189757107862,0.12694033130350066,0.06769276808767308,-0.042751061618756456,0.024033359489753825,0.13349225021128525],[0.08454721807033123,0.2257085825336768,-0.03991215246724943,0.06429095178924962,0.07657570747834615,-0.05652268234630078],[0.10391146633778586,-0.044721572717037236,0.2493795294550297,-0.07044555450864667,0.14287614182389966,-0.2832425695089614]]},{"inputs":[0,0,1,0,0,0],"outputs":[1,1,0,0],"biases":[-0.02076975509427758,0.048199635653774935,-0.10771666377045175,0.09732662492702106],"weights":[[-0.1481454003712189,-0.0502480999801277,0.07928600013819877,0.15924392373682617],[-0.24316968308102063,0.24606621070263496,0.03506754234113987,0.017233931738504744],[0.17883531060232608,0.07303825484577275,-0.1651922329904852,-0.10717655501526038],[0.07518127680282523,-0.024301894650170207,0.2739378263677986,-0.22611793434006444],[0.15013358417791378,0.09171157791640963,-0.2275796422817898,-0.07798320991420454],[0.10605717823726274,-0.04043380021995832,0.0174686871060789,-0.04700481484418782]]}]}